|--- README.md
|--- sdk    
    |--- node_modules           
    |--- scripts
        |--- VSS.SDK.min.js       
|--- img                        
    |--- logo.png                           
|--- scripts                        
|--- hello-world.html               // html page to be used for your widget  
|--- vss-extension.json             // extension's manifest
npm install vss-web-extension-sdk
<!DOCTYPE html>
    <html>
        <head>          
            <script src="sdk/scripts/VSS.SDK.min.js"></script>              
        </head>
        <body>
            <div class="widget">
                <h2 class="title"></h2>
            </div>
        </body>
    </html>
<script type="text/javascript">
        VSS.init({                        
            explicitNotifyLoaded: true,
            usePlatformStyles: true
        });

        VSS.require("TFS/Dashboards/WidgetHelpers", function (WidgetHelpers) {
            WidgetHelpers.IncludeWidgetStyles();
            VSS.register("HelloWorldWidget", function () {                
                return {
                    load: function (widgetSettings) {
                        var $title = $('h2.title');
                        $title.text('Hello World');

                        return WidgetHelpers.WidgetStatusHelper.Success();
                    }
                }
            });
            VSS.notifyLoadSucceeded();
        });
    </script>
    
